digraph Tree {
node [shape=box, style="filled, rounded", color="black", fontname=helvetica] ;
graph [ranksep=equally, splines=polyline] ;
edge [fontname=helvetica] ;
0 [label="st_teff <= 5579.5\nentropy = 1.78\nsamples = 807\nvalue = [456, 191, 73, 42, 20, 25]\nclass = 1", fillcolor="#f4c9aa"] ;
1 [label="st_met <= -0.245\nentropy = 2.08\nsamples = 340\nvalue = [144, 89, 58, 26, 13, 10]\nclass = 1", fillcolor="#f9e3d4"] ;
0 -> 1 [labeldistance=2.5, labelangle=45, headlabel="True"] ;
2 [label="st_rad <= 0.665\nentropy = 2.144\nsamples = 46\nvalue = [8, 3, 17, 10, 8, 0]\nclass = 3", fillcolor="#d9fae6"] ;
1 -> 2 ;
3 [label="st_age <= 6.04\nentropy = 0.65\nsamples = 18\nvalue = [0, 3, 15, 0, 0, 0]\nclass = 3", fillcolor="#61ea9a"] ;
2 -> 3 ;
4 [label="entropy = 0.0\nsamples = 15\nvalue = [0, 0, 15, 0, 0, 0]\nclass = 3", fillcolor="#39e581"] ;
3 -> 4 ;
5 [label="entropy = 0.0\nsamples = 3\nvalue = [0, 3, 0, 0, 0, 0]\nclass = 2", fillcolor="#9de539"] ;
3 -> 5 ;
6 [label="st_age <= 5.305\nentropy = 1.835\nsamples = 28\nvalue = [8, 0, 2, 10, 8, 0]\nclass = 4", fillcolor="#ebf5fc"] ;
2 -> 6 ;
7 [label="st_radv <= 19.79\nentropy = 1.309\nsamples = 11\nvalue = [2, 0, 2, 0, 7, 0]\nclass = 5", fillcolor="#b991f1"] ;
6 -> 7 ;
8 [label="st_dens <= 1.959\nentropy = 1.0\nsamples = 4\nvalue = [2, 0, 2, 0, 0, 0]\nclass = 1", fillcolor="#ffffff"] ;
7 -> 8 ;
9 [label="entropy = 0.0\nsamples = 2\nvalue = [0, 0, 2, 0, 0, 0]\nclass = 3", fillcolor="#39e581"] ;
8 -> 9 ;
10 [label="entropy = 0.0\nsamples = 2\nvalue = [2, 0, 0, 0, 0, 0]\nclass = 1", fillcolor="#e58139"] ;
8 -> 10 ;
11 [label="entropy = 0.0\nsamples = 7\nvalue = [0, 0, 0, 0, 7, 0]\nclass = 5", fillcolor="#8139e5"] ;
7 -> 11 ;
12 [label="st_rad <= 0.755\nentropy = 1.221\nsamples = 17\nvalue = [6, 0, 0, 10, 1, 0]\nclass = 4", fillcolor="#b7dbf6"] ;
6 -> 12 ;
13 [label="entropy = 0.0\nsamples = 4\nvalue = [4, 0, 0, 0, 0, 0]\nclass = 1", fillcolor="#e58139"] ;
12 -> 13 ;
14 [label="st_dens <= 1.692\nentropy = 0.991\nsamples = 13\nvalue = [2, 0, 0, 10, 1, 0]\nclass = 4", fillcolor="#6fb8ec"] ;
12 -> 14 ;
15 [label="entropy = 0.0\nsamples = 2\nvalue = [2, 0, 0, 0, 0, 0]\nclass = 1", fillcolor="#e58139"] ;
14 -> 15 ;
16 [label="st_mass <= 0.805\nentropy = 0.439\nsamples = 11\nvalue = [0, 0, 0, 10, 1, 0]\nclass = 4", fillcolor="#4da7e8"] ;
14 -> 16 ;
17 [label="entropy = 0.0\nsamples = 8\nvalue = [0, 0, 0, 8, 0, 0]\nclass = 4", fillcolor="#399de5"] ;
16 -> 17 ;
18 [label="st_teff <= 5363.5\nentropy = 0.918\nsamples = 3\nvalue = [0, 0, 0, 2, 1, 0]\nclass = 4", fillcolor="#9ccef2"] ;
16 -> 18 ;
19 [label="entropy = 0.0\nsamples = 1\nvalue = [0, 0, 0, 0, 1, 0]\nclass = 5", fillcolor="#8139e5"] ;
18 -> 19 ;
20 [label="entropy = 0.0\nsamples = 2\nvalue = [0, 0, 0, 2, 0, 0]\nclass = 4", fillcolor="#399de5"] ;
18 -> 20 ;
21 [label="st_radv <= -27.195\nentropy = 1.924\nsamples = 294\nvalue = [136, 86, 41, 16, 5, 10]\nclass = 1", fillcolor="#f9e1cf"] ;
1 -> 21 ;
22 [label="st_rad <= 0.57\nentropy = 1.646\nsamples = 45\nvalue = [22, 15, 3, 0, 5, 0]\nclass = 1", fillcolor="#f9e2d1"] ;
21 -> 22 ;
23 [label="st_teff <= 3528.5\nentropy = 0.918\nsamples = 6\nvalue = [0, 0, 2, 0, 4, 0]\nclass = 5", fillcolor="#c09cf2"] ;
22 -> 23 ;
24 [label="entropy = 0.0\nsamples = 2\nvalue = [0, 0, 2, 0, 0, 0]\nclass = 3", fillcolor="#39e581"] ;
23 -> 24 ;
25 [label="entropy = 0.0\nsamples = 4\nvalue = [0, 0, 0, 0, 4, 0]\nclass = 5", fillcolor="#8139e5"] ;
23 -> 25 ;
26 [label="st_mass <= 1.06\nentropy = 1.267\nsamples = 39\nvalue = [22, 15, 1, 0, 1, 0]\nclass = 1", fillcolor="#f7dac5"] ;
22 -> 26 ;
27 [label="st_mass <= 0.775\nentropy = 1.097\nsamples = 35\nvalue = [22, 12, 0, 0, 1, 0]\nclass = 1", fillcolor="#f4c8a9"] ;
26 -> 27 ;
28 [label="entropy = 0.0\nsamples = 7\nvalue = [7, 0, 0, 0, 0, 0]\nclass = 1", fillcolor="#e58139"] ;
27 -> 28 ;
29 [label="st_rad <= 0.775\nentropy = 1.178\nsamples = 28\nvalue = [15, 12, 0, 0, 1, 0]\nclass = 1", fillcolor="#fae7da"] ;
27 -> 29 ;
30 [label="st_radv <= -30.245\nentropy = 1.061\nsamples = 8\nvalue = [1, 6, 0, 0, 1, 0]\nclass = 2", fillcolor="#b9ec72"] ;
29 -> 30 ;
31 [label="st_met <= 0.057\nentropy = 0.592\nsamples = 7\nvalue = [1, 6, 0, 0, 0, 0]\nclass = 2", fillcolor="#ade95a"] ;
30 -> 31 ;
32 [label="st_met <= -0.025\nentropy = 1.0\nsamples = 2\nvalue = [1, 1, 0, 0, 0, 0]\nclass = 1", fillcolor="#ffffff"] ;
31 -> 32 ;
33 [label="entropy = 0.0\nsamples = 1\nvalue = [0, 1, 0, 0, 0, 0]\nclass = 2", fillcolor="#9de539"] ;
32 -> 33 ;
34 [label="entropy = 0.0\nsamples = 1\nvalue = [1, 0, 0, 0, 0, 0]\nclass = 1", fillcolor="#e58139"] ;
32 -> 34 ;
35 [label="entropy = 0.0\nsamples = 5\nvalue = [0, 5, 0, 0, 0, 0]\nclass = 2", fillcolor="#9de539"] ;
31 -> 35 ;
36 [label="entropy = 0.0\nsamples = 1\nvalue = [0, 0, 0, 0, 1, 0]\nclass = 5", fillcolor="#8139e5"] ;
30 -> 36 ;
37 [label="st_radv <= -28.23\nentropy = 0.881\nsamples = 20\nvalue = [14, 6, 0, 0, 0, 0]\nclass = 1", fillcolor="#f0b78e"] ;
29 -> 37 ;
38 [label="st_dens <= 1.11\nentropy = 0.567\nsamples = 15\nvalue = [13, 2, 0, 0, 0, 0]\nclass = 1", fillcolor="#e99457"] ;
37 -> 38 ;
39 [label="st_age <= 8.45\nentropy = 1.0\nsamples = 4\nvalue = [2, 2, 0, 0, 0, 0]\nclass = 1", fillcolor="#ffffff"] ;
38 -> 39 ;
40 [label="entropy = 0.0\nsamples = 2\nvalue = [0, 2, 0, 0, 0, 0]\nclass = 2", fillcolor="#9de539"] ;
39 -> 40 ;
41 [label="entropy = 0.0\nsamples = 2\nvalue = [2, 0, 0, 0, 0, 0]\nclass = 1", fillcolor="#e58139"] ;
39 -> 41 ;
42 [label="entropy = 0.0\nsamples = 11\nvalue = [11, 0, 0, 0, 0, 0]\nclass = 1", fillcolor="#e58139"] ;
38 -> 42 ;
43 [label="st_dens <= 1.432\nentropy = 0.722\nsamples = 5\nvalue = [1, 4, 0, 0, 0, 0]\nclass = 2", fillcolor="#b6ec6a"] ;
37 -> 43 ;
44 [label="entropy = 0.0\nsamples = 1\nvalue = [1, 0, 0, 0, 0, 0]\nclass = 1", fillcolor="#e58139"] ;
43 -> 44 ;
45 [label="entropy = 0.0\nsamples = 4\nvalue = [0, 4, 0, 0, 0, 0]\nclass = 2", fillcolor="#9de539"] ;
43 -> 45 ;
46 [label="st_dens <= 0.096\nentropy = 0.811\nsamples = 4\nvalue = [0, 3, 1, 0, 0, 0]\nclass = 2", fillcolor="#beee7b"] ;
26 -> 46 ;
47 [label="entropy = 0.0\nsamples = 1\nvalue = [0, 0, 1, 0, 0, 0]\nclass = 3", fillcolor="#39e581"] ;
46 -> 47 ;
48 [label="entropy = 0.0\nsamples = 3\nvalue = [0, 3, 0, 0, 0, 0]\nclass = 2", fillcolor="#9de539"] ;
46 -> 48 ;
49 [label="st_age <= 10.385\nentropy = 1.887\nsamples = 249\nvalue = [114, 71, 38, 16, 0, 10]\nclass = 1", fillcolor="#f9e1cf"] ;
21 -> 49 ;
50 [label="st_met <= -0.055\nentropy = 1.829\nsamples = 219\nvalue = [104, 59, 36, 16, 0, 4]\nclass = 1", fillcolor="#f8dcc7"] ;
49 -> 50 ;
51 [label="st_radv <= 2.095\nentropy = 1.777\nsamples = 58\nvalue = [18, 27, 9, 3, 0, 1]\nclass = 2", fillcolor="#e9f9d2"] ;
50 -> 51 ;
52 [label="st_age <= 2.88\nentropy = 1.57\nsamples = 26\nvalue = [7, 10, 9, 0, 0, 0]\nclass = 2", fillcolor="#f9fdf3"] ;
51 -> 52 ;
53 [label="st_radv <= -22.77\nentropy = 0.918\nsamples = 9\nvalue = [3, 0, 6, 0, 0, 0]\nclass = 3", fillcolor="#9cf2c0"] ;
52 -> 53 ;
54 [label="entropy = 0.0\nsamples = 2\nvalue = [2, 0, 0, 0, 0, 0]\nclass = 1", fillcolor="#e58139"] ;
53 -> 54 ;
55 [label="st_met <= -0.065\nentropy = 0.592\nsamples = 7\nvalue = [1, 0, 6, 0, 0, 0]\nclass = 3", fillcolor="#5ae996"] ;
53 -> 55 ;
56 [label="entropy = 0.0\nsamples = 6\nvalue = [0, 0, 6, 0, 0, 0]\nclass = 3", fillcolor="#39e581"] ;
55 -> 56 ;
57 [label="entropy = 0.0\nsamples = 1\nvalue = [1, 0, 0, 0, 0, 0]\nclass = 1", fillcolor="#e58139"] ;
55 -> 57 ;
58 [label="st_age <= 6.65\nentropy = 1.383\nsamples = 17\nvalue = [4, 10, 3, 0, 0, 0]\nclass = 2", fillcolor="#d2f3a4"] ;
52 -> 58 ;
59 [label="st_radv <= -15.425\nentropy = 0.722\nsamples = 10\nvalue = [2, 8, 0, 0, 0, 0]\nclass = 2", fillcolor="#b6ec6a"] ;
58 -> 59 ;
60 [label="st_age <= 5.875\nentropy = 1.0\nsamples = 4\nvalue = [2, 2, 0, 0, 0, 0]\nclass = 1", fillcolor="#ffffff"] ;
59 -> 60 ;
61 [label="entropy = 0.0\nsamples = 2\nvalue = [2, 0, 0, 0, 0, 0]\nclass = 1", fillcolor="#e58139"] ;
60 -> 61 ;
62 [label="entropy = 0.0\nsamples = 2\nvalue = [0, 2, 0, 0, 0, 0]\nclass = 2", fillcolor="#9de539"] ;
60 -> 62 ;
63 [label="entropy = 0.0\nsamples = 6\nvalue = [0, 6, 0, 0, 0, 0]\nclass = 2", fillcolor="#9de539"] ;
59 -> 63 ;
64 [label="st_age <= 7.2\nentropy = 1.557\nsamples = 7\nvalue = [2, 2, 3, 0, 0, 0]\nclass = 3", fillcolor="#d7fae6"] ;
58 -> 64 ;
65 [label="entropy = 0.0\nsamples = 3\nvalue = [0, 0, 3, 0, 0, 0]\nclass = 3", fillcolor="#39e581"] ;
64 -> 65 ;
66 [label="st_radv <= -22.54\nentropy = 1.0\nsamples = 4\nvalue = [2, 2, 0, 0, 0, 0]\nclass = 1", fillcolor="#ffffff"] ;
64 -> 66 ;
67 [label="entropy = 0.0\nsamples = 2\nvalue = [0, 2, 0, 0, 0, 0]\nclass = 2", fillcolor="#9de539"] ;
66 -> 67 ;
68 [label="entropy = 0.0\nsamples = 2\nvalue = [2, 0, 0, 0, 0, 0]\nclass = 1", fillcolor="#e58139"] ;
66 -> 68 ;
69 [label="st_teff <= 5067.5\nentropy = 1.491\nsamples = 32\nvalue = [11, 17, 0, 3, 0, 1]\nclass = 2", fillcolor="#e3f8c6"] ;
51 -> 69 ;
70 [label="st_teff <= 4626.0\nentropy = 1.431\nsamples = 27\nvalue = [6, 17, 0, 3, 0, 1]\nclass = 2", fillcolor="#ccf197"] ;
69 -> 70 ;
71 [label="st_radv <= 53.36\nentropy = 1.248\nsamples = 16\nvalue = [6, 9, 0, 0, 0, 1]\nclass = 2", fillcolor="#e2f7c4"] ;
70 -> 71 ;
72 [label="st_teff <= 4487.0\nentropy = 0.94\nsamples = 14\nvalue = [5, 9, 0, 0, 0, 0]\nclass = 2", fillcolor="#d3f3a7"] ;
71 -> 72 ;
73 [label="st_age <= 4.1\nentropy = 0.811\nsamples = 12\nvalue = [3, 9, 0, 0, 0, 0]\nclass = 2", fillcolor="#beee7b"] ;
72 -> 73 ;
74 [label="st_age <= 0.75\nentropy = 0.985\nsamples = 7\nvalue = [3, 4, 0, 0, 0, 0]\nclass = 2", fillcolor="#e6f8ce"] ;
73 -> 74 ;
75 [label="entropy = 0.0\nsamples = 3\nvalue = [0, 3, 0, 0, 0, 0]\nclass = 2", fillcolor="#9de539"] ;
74 -> 75 ;
76 [label="st_mass <= 0.665\nentropy = 0.811\nsamples = 4\nvalue = [3, 1, 0, 0, 0, 0]\nclass = 1", fillcolor="#eeab7b"] ;
74 -> 76 ;
77 [label="entropy = 0.0\nsamples = 3\nvalue = [3, 0, 0, 0, 0, 0]\nclass = 1", fillcolor="#e58139"] ;
76 -> 77 ;
78 [label="entropy = 0.0\nsamples = 1\nvalue = [0, 1, 0, 0, 0, 0]\nclass = 2", fillcolor="#9de539"] ;
76 -> 78 ;
79 [label="entropy = 0.0\nsamples = 5\nvalue = [0, 5, 0, 0, 0, 0]\nclass = 2", fillcolor="#9de539"] ;
73 -> 79 ;
80 [label="entropy = 0.0\nsamples = 2\nvalue = [2, 0, 0, 0, 0, 0]\nclass = 1", fillcolor="#e58139"] ;
72 -> 80 ;
81 [label="st_rad <= 0.585\nentropy = 1.0\nsamples = 2\nvalue = [1, 0, 0, 0, 0, 1]\nclass = 1", fillcolor="#ffffff"] ;
71 -> 81 ;
82 [label="entropy = 0.0\nsamples = 1\nvalue = [1, 0, 0, 0, 0, 0]\nclass = 1", fillcolor="#e58139"] ;
81 -> 82 ;
83 [label="entropy = 0.0\nsamples = 1\nvalue = [0, 0, 0, 0, 0, 1]\nclass = 6", fillcolor="#e5399d"] ;
81 -> 83 ;
84 [label="st_teff <= 4689.0\nentropy = 0.845\nsamples = 11\nvalue = [0, 8, 0, 3, 0, 0]\nclass = 2", fillcolor="#c2ef83"] ;
70 -> 84 ;
85 [label="entropy = 0.0\nsamples = 3\nvalue = [0, 0, 0, 3, 0, 0]\nclass = 4", fillcolor="#399de5"] ;
84 -> 85 ;
86 [label="entropy = 0.0\nsamples = 8\nvalue = [0, 8, 0, 0, 0, 0]\nclass = 2", fillcolor="#9de539"] ;
84 -> 86 ;
87 [label="entropy = 0.0\nsamples = 5\nvalue = [5, 0, 0, 0, 0, 0]\nclass = 1", fillcolor="#e58139"] ;
69 -> 87 ;
88 [label="st_radv <= 16.555\nentropy = 1.779\nsamples = 161\nvalue = [86, 32, 27, 13, 0, 3]\nclass = 1", fillcolor="#f4caac"] ;
50 -> 88 ;
89 [label="st_teff <= 5551.0\nentropy = 1.867\nsamples = 109\nvalue = [55, 24, 14, 13, 0, 3]\nclass = 1", fillcolor="#f6d1b7"] ;
88 -> 89 ;
90 [label="st_age <= 3.17\nentropy = 1.769\nsamples = 101\nvalue = [55, 23, 12, 8, 0, 3]\nclass = 1", fillcolor="#f4cbae"] ;
89 -> 90 ;
91 [label="st_teff <= 5238.0\nentropy = 2.101\nsamples = 37\nvalue = [15, 7, 4, 8, 0, 3]\nclass = 1", fillcolor="#f9e1cf"] ;
90 -> 91 ;
92 [label="st_met <= 0.198\nentropy = 1.861\nsamples = 21\nvalue = [7, 3, 3, 8, 0, 0]\nclass = 4", fillcolor="#f1f8fd"] ;
91 -> 92 ;
93 [label="st_met <= 0.075\nentropy = 1.781\nsamples = 16\nvalue = [2, 3, 3, 8, 0, 0]\nclass = 4", fillcolor="#b3d9f5"] ;
92 -> 93 ;
94 [label="st_mass <= 0.56\nentropy = 1.0\nsamples = 6\nvalue = [0, 0, 3, 3, 0, 0]\nclass = 3", fillcolor="#ffffff"] ;
93 -> 94 ;
95 [label="entropy = 0.0\nsamples = 3\nvalue = [0, 0, 0, 3, 0, 0]\nclass = 4", fillcolor="#399de5"] ;
94 -> 95 ;
96 [label="entropy = 0.0\nsamples = 3\nvalue = [0, 0, 3, 0, 0, 0]\nclass = 3", fillcolor="#39e581"] ;
94 -> 96 ;
97 [label="st_dens <= 2.295\nentropy = 1.485\nsamples = 10\nvalue = [2, 3, 0, 5, 0, 0]\nclass = 4", fillcolor="#c6e3f8"] ;
93 -> 97 ;
98 [label="entropy = 0.0\nsamples = 5\nvalue = [0, 0, 0, 5, 0, 0]\nclass = 4", fillcolor="#399de5"] ;
97 -> 98 ;
99 [label="st_teff <= 4619.5\nentropy = 0.971\nsamples = 5\nvalue = [2, 3, 0, 0, 0, 0]\nclass = 2", fillcolor="#def6bd"] ;
97 -> 99 ;
100 [label="entropy = 0.0\nsamples = 2\nvalue = [2, 0, 0, 0, 0, 0]\nclass = 1", fillcolor="#e58139"] ;
99 -> 100 ;
101 [label="entropy = 0.0\nsamples = 3\nvalue = [0, 3, 0, 0, 0, 0]\nclass = 2", fillcolor="#9de539"] ;
99 -> 101 ;
102 [label="entropy = 0.0\nsamples = 5\nvalue = [5, 0, 0, 0, 0, 0]\nclass = 1", fillcolor="#e58139"] ;
92 -> 102 ;
103 [label="st_age <= 2.745\nentropy = 1.703\nsamples = 16\nvalue = [8, 4, 1, 0, 0, 3]\nclass = 1", fillcolor="#f6d5bd"] ;
91 -> 103 ;
104 [label="st_radv <= -19.85\nentropy = 1.239\nsamples = 13\nvalue = [8, 4, 1, 0, 0, 0]\nclass = 1", fillcolor="#f3c7a7"] ;
103 -> 104 ;
105 [label="st_mass <= 1.005\nentropy = 0.918\nsamples = 3\nvalue = [0, 2, 1, 0, 0, 0]\nclass = 2", fillcolor="#cef29c"] ;
104 -> 105 ;
106 [label="entropy = 0.0\nsamples = 1\nvalue = [0, 0, 1, 0, 0, 0]\nclass = 3", fillcolor="#39e581"] ;
105 -> 106 ;
107 [label="entropy = 0.0\nsamples = 2\nvalue = [0, 2, 0, 0, 0, 0]\nclass = 2", fillcolor="#9de539"] ;
105 -> 107 ;
108 [label="st_teff <= 5539.0\nentropy = 0.722\nsamples = 10\nvalue = [8, 2, 0, 0, 0, 0]\nclass = 1", fillcolor="#eca06a"] ;
104 -> 108 ;
109 [label="entropy = 0.0\nsamples = 8\nvalue = [8, 0, 0, 0, 0, 0]\nclass = 1", fillcolor="#e58139"] ;
108 -> 109 ;
110 [label="entropy = 0.0\nsamples = 2\nvalue = [0, 2, 0, 0, 0, 0]\nclass = 2", fillcolor="#9de539"] ;
108 -> 110 ;
111 [label="entropy = 0.0\nsamples = 3\nvalue = [0, 0, 0, 0, 0, 3]\nclass = 6", fillcolor="#e5399d"] ;
103 -> 111 ;
112 [label="st_met <= 0.125\nentropy = 1.299\nsamples = 64\nvalue = [40, 16, 8, 0, 0, 0]\nclass = 1", fillcolor="#f2c09c"] ;
90 -> 112 ;
113 [label="st_age <= 6.5\nentropy = 1.171\nsamples = 32\nvalue = [22, 3, 7, 0, 0, 0]\nclass = 1", fillcolor="#efb388"] ;
112 -> 113 ;
114 [label="st_dens <= 2.546\nentropy = 0.696\nsamples = 16\nvalue = [13, 3, 0, 0, 0, 0]\nclass = 1", fillcolor="#eb9e67"] ;
113 -> 114 ;
115 [label="entropy = 0.0\nsamples = 10\nvalue = [10, 0, 0, 0, 0, 0]\nclass = 1", fillcolor="#e58139"] ;
114 -> 115 ;
116 [label="st_dens <= 4.191\nentropy = 1.0\nsamples = 6\nvalue = [3, 3, 0, 0, 0, 0]\nclass = 1", fillcolor="#ffffff"] ;
114 -> 116 ;
117 [label="entropy = 0.0\nsamples = 3\nvalue = [0, 3, 0, 0, 0, 0]\nclass = 2", fillcolor="#9de539"] ;
116 -> 117 ;
118 [label="entropy = 0.0\nsamples = 3\nvalue = [3, 0, 0, 0, 0, 0]\nclass = 1", fillcolor="#e58139"] ;
116 -> 118 ;
119 [label="st_age <= 8.15\nentropy = 0.989\nsamples = 16\nvalue = [9, 0, 7, 0, 0, 0]\nclass = 1", fillcolor="#f9e3d3"] ;
113 -> 119 ;
120 [label="st_rad <= 0.64\nentropy = 0.544\nsamples = 8\nvalue = [1, 0, 7, 0, 0, 0]\nclass = 3", fillcolor="#55e993"] ;
119 -> 120 ;
121 [label="entropy = 0.0\nsamples = 1\nvalue = [1, 0, 0, 0, 0, 0]\nclass = 1", fillcolor="#e58139"] ;
120 -> 121 ;
122 [label="entropy = 0.0\nsamples = 7\nvalue = [0, 0, 7, 0, 0, 0]\nclass = 3", fillcolor="#39e581"] ;
120 -> 122 ;
123 [label="entropy = 0.0\nsamples = 8\nvalue = [8, 0, 0, 0, 0, 0]\nclass = 1", fillcolor="#e58139"] ;
119 -> 123 ;
124 [label="st_teff <= 5531.0\nentropy = 1.151\nsamples = 32\nvalue = [18, 13, 1, 0, 0, 0]\nclass = 1", fillcolor="#f8decb"] ;
112 -> 124 ;
125 [label="st_met <= 0.335\nentropy = 0.992\nsamples = 29\nvalue = [16, 13, 0, 0, 0, 0]\nclass = 1", fillcolor="#fae7da"] ;
124 -> 125 ;
126 [label="st_rad <= 1.0\nentropy = 0.999\nsamples = 25\nvalue = [12, 13, 0, 0, 0, 0]\nclass = 2", fillcolor="#f7fdf0"] ;
125 -> 126 ;
127 [label="st_radv <= -3.77\nentropy = 0.985\nsamples = 21\nvalue = [12, 9, 0, 0, 0, 0]\nclass = 1", fillcolor="#f8e0ce"] ;
126 -> 127 ;
128 [label="st_mass <= 0.96\nentropy = 0.985\nsamples = 14\nvalue = [6, 8, 0, 0, 0, 0]\nclass = 2", fillcolor="#e6f8ce"] ;
127 -> 128 ;
129 [label="entropy = 0.845\nsamples = 11\nvalue = [3, 8, 0, 0, 0, 0]\nclass = 2", fillcolor="#c2ef83"] ;
128 -> 129 ;
130 [label="entropy = 0.0\nsamples = 3\nvalue = [3, 0, 0, 0, 0, 0]\nclass = 1", fillcolor="#e58139"] ;
128 -> 130 ;
131 [label="st_met <= 0.175\nentropy = 0.592\nsamples = 7\nvalue = [6, 1, 0, 0, 0, 0]\nclass = 1", fillcolor="#e9965a"] ;
127 -> 131 ;
132 [label="entropy = 0.0\nsamples = 1\nvalue = [0, 1, 0, 0, 0, 0]\nclass = 2", fillcolor="#9de539"] ;
131 -> 132 ;
133 [label="entropy = 0.0\nsamples = 6\nvalue = [6, 0, 0, 0, 0, 0]\nclass = 1", fillcolor="#e58139"] ;
131 -> 133 ;
134 [label="entropy = 0.0\nsamples = 4\nvalue = [0, 4, 0, 0, 0, 0]\nclass = 2", fillcolor="#9de539"] ;
126 -> 134 ;
135 [label="entropy = 0.0\nsamples = 4\nvalue = [4, 0, 0, 0, 0, 0]\nclass = 1", fillcolor="#e58139"] ;
125 -> 135 ;
136 [label="st_mass <= 1.02\nentropy = 0.918\nsamples = 3\nvalue = [2, 0, 1, 0, 0, 0]\nclass = 1", fillcolor="#f2c09c"] ;
124 -> 136 ;
137 [label="entropy = 0.0\nsamples = 1\nvalue = [0, 0, 1, 0, 0, 0]\nclass = 3", fillcolor="#39e581"] ;
136 -> 137 ;
138 [label="entropy = 0.0\nsamples = 2\nvalue = [2, 0, 0, 0, 0, 0]\nclass = 1", fillcolor="#e58139"] ;
136 -> 138 ;
139 [label="st_teff <= 5569.5\nentropy = 1.299\nsamples = 8\nvalue = [0, 1, 2, 5, 0, 0]\nclass = 4", fillcolor="#9ccef2"] ;
89 -> 139 ;
140 [label="entropy = 0.0\nsamples = 5\nvalue = [0, 0, 0, 5, 0, 0]\nclass = 4", fillcolor="#399de5"] ;
139 -> 140 ;
141 [label="st_age <= 7.4\nentropy = 0.918\nsamples = 3\nvalue = [0, 1, 2, 0, 0, 0]\nclass = 3", fillcolor="#9cf2c0"] ;
139 -> 141 ;
142 [label="entropy = 0.0\nsamples = 1\nvalue = [0, 1, 0, 0, 0, 0]\nclass = 2", fillcolor="#9de539"] ;
141 -> 142 ;
143 [label="entropy = 0.0\nsamples = 2\nvalue = [0, 0, 2, 0, 0, 0]\nclass = 3", fillcolor="#39e581"] ;
141 -> 143 ;
144 [label="st_radv <= 31.12\nentropy = 1.36\nsamples = 52\nvalue = [31, 8, 13, 0, 0, 0]\nclass = 1", fillcolor="#f3c5a4"] ;
88 -> 144 ;
145 [label="st_age <= 5.755\nentropy = 0.84\nsamples = 26\nvalue = [19, 0, 7, 0, 0, 0]\nclass = 1", fillcolor="#efaf82"] ;
144 -> 145 ;
146 [label="entropy = 0.0\nsamples = 13\nvalue = [13, 0, 0, 0, 0, 0]\nclass = 1", fillcolor="#e58139"] ;
145 -> 146 ;
147 [label="st_teff <= 5382.5\nentropy = 0.996\nsamples = 13\nvalue = [6, 0, 7, 0, 0, 0]\nclass = 3", fillcolor="#e3fbed"] ;
145 -> 147 ;
148 [label="entropy = 0.0\nsamples = 4\nvalue = [4, 0, 0, 0, 0, 0]\nclass = 1", fillcolor="#e58139"] ;
147 -> 148 ;
149 [label="st_teff <= 5435.0\nentropy = 0.764\nsamples = 9\nvalue = [2, 0, 7, 0, 0, 0]\nclass = 3", fillcolor="#72eca5"] ;
147 -> 149 ;
150 [label="entropy = 0.0\nsamples = 7\nvalue = [0, 0, 7, 0, 0, 0]\nclass = 3", fillcolor="#39e581"] ;
149 -> 150 ;
151 [label="entropy = 0.0\nsamples = 2\nvalue = [2, 0, 0, 0, 0, 0]\nclass = 1", fillcolor="#e58139"] ;
149 -> 151 ;
152 [label="st_dens <= 2.095\nentropy = 1.526\nsamples = 26\nvalue = [12, 8, 6, 0, 0, 0]\nclass = 1", fillcolor="#f9e3d3"] ;
144 -> 152 ;
153 [label="st_teff <= 5331.0\nentropy = 0.94\nsamples = 14\nvalue = [9, 5, 0, 0, 0, 0]\nclass = 1", fillcolor="#f3c7a7"] ;
152 -> 153 ;
154 [label="st_teff <= 5055.0\nentropy = 0.991\nsamples = 9\nvalue = [4, 5, 0, 0, 0, 0]\nclass = 2", fillcolor="#ebfad7"] ;
153 -> 154 ;
155 [label="st_mass <= 0.98\nentropy = 0.722\nsamples = 5\nvalue = [4, 1, 0, 0, 0, 0]\nclass = 1", fillcolor="#eca06a"] ;
154 -> 155 ;
156 [label="entropy = 0.0\nsamples = 4\nvalue = [4, 0, 0, 0, 0, 0]\nclass = 1", fillcolor="#e58139"] ;
155 -> 156 ;
157 [label="entropy = 0.0\nsamples = 1\nvalue = [0, 1, 0, 0, 0, 0]\nclass = 2", fillcolor="#9de539"] ;
155 -> 157 ;
158 [label="entropy = 0.0\nsamples = 4\nvalue = [0, 4, 0, 0, 0, 0]\nclass = 2", fillcolor="#9de539"] ;
154 -> 158 ;
159 [label="entropy = 0.0\nsamples = 5\nvalue = [5, 0, 0, 0, 0, 0]\nclass = 1", fillcolor="#e58139"] ;
153 -> 159 ;
160 [label="st_met <= 0.075\nentropy = 1.5\nsamples = 12\nvalue = [3, 3, 6, 0, 0, 0]\nclass = 3", fillcolor="#bdf6d5"] ;
152 -> 160 ;
161 [label="st_mass <= 0.695\nentropy = 1.0\nsamples = 4\nvalue = [2, 2, 0, 0, 0, 0]\nclass = 1", fillcolor="#ffffff"] ;
160 -> 161 ;
162 [label="entropy = 0.0\nsamples = 2\nvalue = [2, 0, 0, 0, 0, 0]\nclass = 1", fillcolor="#e58139"] ;
161 -> 162 ;
163 [label="entropy = 0.0\nsamples = 2\nvalue = [0, 2, 0, 0, 0, 0]\nclass = 2", fillcolor="#9de539"] ;
161 -> 163 ;
164 [label="st_age <= 1.395\nentropy = 1.061\nsamples = 8\nvalue = [1, 1, 6, 0, 0, 0]\nclass = 3", fillcolor="#72eca5"] ;
160 -> 164 ;
165 [label="entropy = 0.0\nsamples = 1\nvalue = [1, 0, 0, 0, 0, 0]\nclass = 1", fillcolor="#e58139"] ;
164 -> 165 ;
166 [label="st_radv <= 73.2\nentropy = 0.592\nsamples = 7\nvalue = [0, 1, 6, 0, 0, 0]\nclass = 3", fillcolor="#5ae996"] ;
164 -> 166 ;
167 [label="entropy = 0.0\nsamples = 6\nvalue = [0, 0, 6, 0, 0, 0]\nclass = 3", fillcolor="#39e581"] ;
166 -> 167 ;
168 [label="entropy = 0.0\nsamples = 1\nvalue = [0, 1, 0, 0, 0, 0]\nclass = 2", fillcolor="#9de539"] ;
166 -> 168 ;
169 [label="st_mass <= 0.905\nentropy = 1.782\nsamples = 30\nvalue = [10, 12, 2, 0, 0, 6]\nclass = 2", fillcolor="#f5fceb"] ;
49 -> 169 ;
170 [label="st_radv <= -13.18\nentropy = 1.706\nsamples = 15\nvalue = [6, 1, 2, 0, 0, 6]\nclass = 1", fillcolor="#ffffff"] ;
169 -> 170 ;
171 [label="st_age <= 10.75\nentropy = 0.592\nsamples = 7\nvalue = [0, 1, 0, 0, 0, 6]\nclass = 6", fillcolor="#e95aad"] ;
170 -> 171 ;
172 [label="entropy = 0.0\nsamples = 1\nvalue = [0, 1, 0, 0, 0, 0]\nclass = 2", fillcolor="#9de539"] ;
171 -> 172 ;
173 [label="entropy = 0.0\nsamples = 6\nvalue = [0, 0, 0, 0, 0, 6]\nclass = 6", fillcolor="#e5399d"] ;
171 -> 173 ;
174 [label="st_met <= 0.254\nentropy = 0.811\nsamples = 8\nvalue = [6, 0, 2, 0, 0, 0]\nclass = 1", fillcolor="#eeab7b"] ;
170 -> 174 ;
175 [label="entropy = 0.0\nsamples = 6\nvalue = [6, 0, 0, 0, 0, 0]\nclass = 1", fillcolor="#e58139"] ;
174 -> 175 ;
176 [label="entropy = 0.0\nsamples = 2\nvalue = [0, 0, 2, 0, 0, 0]\nclass = 3", fillcolor="#39e581"] ;
174 -> 176 ;
177 [label="st_met <= 0.07\nentropy = 0.837\nsamples = 15\nvalue = [4, 11, 0, 0, 0, 0]\nclass = 2", fillcolor="#c1ee81"] ;
169 -> 177 ;
178 [label="entropy = 0.0\nsamples = 7\nvalue = [0, 7, 0, 0, 0, 0]\nclass = 2", fillcolor="#9de539"] ;
177 -> 178 ;
179 [label="st_dens <= 1.788\nentropy = 1.0\nsamples = 8\nvalue = [4, 4, 0, 0, 0, 0]\nclass = 1", fillcolor="#ffffff"] ;
177 -> 179 ;
180 [label="entropy = 0.0\nsamples = 4\nvalue = [4, 0, 0, 0, 0, 0]\nclass = 1", fillcolor="#e58139"] ;
179 -> 180 ;
181 [label="entropy = 0.0\nsamples = 4\nvalue = [0, 4, 0, 0, 0, 0]\nclass = 2", fillcolor="#9de539"] ;
179 -> 181 ;
182 [label="st_age <= 4.25\nentropy = 1.444\nsamples = 467\nvalue = [312, 102, 15, 16, 7, 15]\nclass = 1", fillcolor="#f0b78d"] ;
0 -> 182 [labeldistance=2.5, labelangle=-45, headlabel="False"] ;
183 [label="st_radv <= -16.11\nentropy = 0.961\nsamples = 259\nvalue = [203, 44, 7, 5, 0, 0]\nclass = 1", fillcolor="#eca26d"] ;
182 -> 183 ;
184 [label="st_radv <= -16.74\nentropy = 1.324\nsamples = 76\nvalue = [53, 12, 7, 4, 0, 0]\nclass = 1", fillcolor="#eeae80"] ;
183 -> 184 ;
185 [label="st_rad <= 1.37\nentropy = 1.012\nsamples = 70\nvalue = [53, 12, 5, 0, 0, 0]\nclass = 1", fillcolor="#eda673"] ;
184 -> 185 ;
186 [label="st_rad <= 1.285\nentropy = 1.239\nsamples = 44\nvalue = [29, 10, 5, 0, 0, 0]\nclass = 1", fillcolor="#f0b990"] ;
185 -> 186 ;
187 [label="st_age <= 3.605\nentropy = 0.754\nsamples = 31\nvalue = [26, 4, 1, 0, 0, 0]\nclass = 1", fillcolor="#ea985e"] ;
186 -> 187 ;
188 [label="st_dens <= 0.311\nentropy = 0.575\nsamples = 29\nvalue = [26, 2, 1, 0, 0, 0]\nclass = 1", fillcolor="#e88f4f"] ;
187 -> 188 ;
189 [label="entropy = 0.0\nsamples = 1\nvalue = [0, 1, 0, 0, 0, 0]\nclass = 2", fillcolor="#9de539"] ;
188 -> 189 ;
190 [label="st_age <= 1.611\nentropy = 0.443\nsamples = 28\nvalue = [26, 1, 1, 0, 0, 0]\nclass = 1", fillcolor="#e78a48"] ;
188 -> 190 ;
191 [label="st_met <= 0.093\nentropy = 0.922\nsamples = 10\nvalue = [8, 1, 1, 0, 0, 0]\nclass = 1", fillcolor="#eb9d65"] ;
190 -> 191 ;
192 [label="st_age <= 1.45\nentropy = 1.5\nsamples = 4\nvalue = [2, 1, 1, 0, 0, 0]\nclass = 1", fillcolor="#f6d5bd"] ;
191 -> 192 ;
193 [label="st_dens <= 1.193\nentropy = 0.918\nsamples = 3\nvalue = [2, 1, 0, 0, 0, 0]\nclass = 1", fillcolor="#f2c09c"] ;
192 -> 193 ;
194 [label="entropy = 0.0\nsamples = 1\nvalue = [0, 1, 0, 0, 0, 0]\nclass = 2", fillcolor="#9de539"] ;
193 -> 194 ;
195 [label="entropy = 0.0\nsamples = 2\nvalue = [2, 0, 0, 0, 0, 0]\nclass = 1", fillcolor="#e58139"] ;
193 -> 195 ;
196 [label="entropy = 0.0\nsamples = 1\nvalue = [0, 0, 1, 0, 0, 0]\nclass = 3", fillcolor="#39e581"] ;
192 -> 196 ;
197 [label="entropy = 0.0\nsamples = 6\nvalue = [6, 0, 0, 0, 0, 0]\nclass = 1", fillcolor="#e58139"] ;
191 -> 197 ;
198 [label="entropy = 0.0\nsamples = 18\nvalue = [18, 0, 0, 0, 0, 0]\nclass = 1", fillcolor="#e58139"] ;
190 -> 198 ;
199 [label="entropy = 0.0\nsamples = 2\nvalue = [0, 2, 0, 0, 0, 0]\nclass = 2", fillcolor="#9de539"] ;
187 -> 199 ;
200 [label="st_radv <= -23.565\nentropy = 1.526\nsamples = 13\nvalue = [3, 6, 4, 0, 0, 0]\nclass = 2", fillcolor="#e9f9d3"] ;
186 -> 200 ;
201 [label="st_dens <= 0.377\nentropy = 1.295\nsamples = 10\nvalue = [3, 6, 1, 0, 0, 0]\nclass = 2", fillcolor="#d5f4aa"] ;
200 -> 201 ;
202 [label="entropy = 0.0\nsamples = 1\nvalue = [0, 0, 1, 0, 0, 0]\nclass = 3", fillcolor="#39e581"] ;
201 -> 202 ;
203 [label="st_teff <= 6228.5\nentropy = 0.918\nsamples = 9\nvalue = [3, 6, 0, 0, 0, 0]\nclass = 2", fillcolor="#cef29c"] ;
201 -> 203 ;
204 [label="st_dens <= 1.251\nentropy = 0.592\nsamples = 7\nvalue = [1, 6, 0, 0, 0, 0]\nclass = 2", fillcolor="#ade95a"] ;
203 -> 204 ;
205 [label="entropy = 0.0\nsamples = 6\nvalue = [0, 6, 0, 0, 0, 0]\nclass = 2", fillcolor="#9de539"] ;
204 -> 205 ;
206 [label="entropy = 0.0\nsamples = 1\nvalue = [1, 0, 0, 0, 0, 0]\nclass = 1", fillcolor="#e58139"] ;
204 -> 206 ;
207 [label="entropy = 0.0\nsamples = 2\nvalue = [2, 0, 0, 0, 0, 0]\nclass = 1", fillcolor="#e58139"] ;
203 -> 207 ;
208 [label="entropy = 0.0\nsamples = 3\nvalue = [0, 0, 3, 0, 0, 0]\nclass = 3", fillcolor="#39e581"] ;
200 -> 208 ;
209 [label="st_radv <= -21.54\nentropy = 0.391\nsamples = 26\nvalue = [24, 2, 0, 0, 0, 0]\nclass = 1", fillcolor="#e78c49"] ;
185 -> 209 ;
210 [label="entropy = 0.0\nsamples = 21\nvalue = [21, 0, 0, 0, 0, 0]\nclass = 1", fillcolor="#e58139"] ;
209 -> 210 ;
211 [label="st_mass <= 1.425\nentropy = 0.971\nsamples = 5\nvalue = [3, 2, 0, 0, 0, 0]\nclass = 1", fillcolor="#f6d5bd"] ;
209 -> 211 ;
212 [label="entropy = 0.0\nsamples = 2\nvalue = [0, 2, 0, 0, 0, 0]\nclass = 2", fillcolor="#9de539"] ;
211 -> 212 ;
213 [label="entropy = 0.0\nsamples = 3\nvalue = [3, 0, 0, 0, 0, 0]\nclass = 1", fillcolor="#e58139"] ;
211 -> 213 ;
214 [label="st_met <= 0.149\nentropy = 0.918\nsamples = 6\nvalue = [0, 0, 2, 4, 0, 0]\nclass = 4", fillcolor="#9ccef2"] ;
184 -> 214 ;
215 [label="entropy = 0.0\nsamples = 2\nvalue = [0, 0, 2, 0, 0, 0]\nclass = 3", fillcolor="#39e581"] ;
214 -> 215 ;
216 [label="entropy = 0.0\nsamples = 4\nvalue = [0, 0, 0, 4, 0, 0]\nclass = 4", fillcolor="#399de5"] ;
214 -> 216 ;
217 [label="st_rad <= 1.68\nentropy = 0.716\nsamples = 183\nvalue = [150, 32, 0, 1, 0, 0]\nclass = 1", fillcolor="#eb9d64"] ;
183 -> 217 ;
218 [label="st_radv <= 17.21\nentropy = 0.815\nsamples = 142\nvalue = [110, 31, 0, 1, 0, 0]\nclass = 1", fillcolor="#eca572"] ;
217 -> 218 ;
219 [label="st_mass <= 0.985\nentropy = 0.94\nsamples = 101\nvalue = [71, 29, 0, 1, 0, 0]\nclass = 1", fillcolor="#f0b68c"] ;
218 -> 219 ;
220 [label="entropy = 0.0\nsamples = 10\nvalue = [10, 0, 0, 0, 0, 0]\nclass = 1", fillcolor="#e58139"] ;
219 -> 220 ;
221 [label="st_radv <= 15.63\nentropy = 0.984\nsamples = 91\nvalue = [61, 29, 0, 1, 0, 0]\nclass = 1", fillcolor="#f2be99"] ;
219 -> 221 ;
222 [label="st_radv <= 11.155\nentropy = 0.95\nsamples = 87\nvalue = [61, 25, 0, 1, 0, 0]\nclass = 1", fillcolor="#f0b68c"] ;
221 -> 222 ;
223 [label="st_radv <= 7.88\nentropy = 0.997\nsamples = 78\nvalue = [52, 25, 0, 1, 0, 0]\nclass = 1", fillcolor="#f2bf9a"] ;
222 -> 223 ;
224 [label="st_radv <= 4.055\nentropy = 0.951\nsamples = 72\nvalue = [51, 20, 0, 1, 0, 0]\nclass = 1", fillcolor="#f0b489"] ;
223 -> 224 ;
225 [label="st_age <= 3.895\nentropy = 0.907\nsamples = 62\nvalue = [42, 20, 0, 0, 0, 0]\nclass = 1", fillcolor="#f1bd97"] ;
224 -> 225 ;
226 [label="st_met <= -0.186\nentropy = 0.946\nsamples = 55\nvalue = [35, 20, 0, 0, 0, 0]\nclass = 1", fillcolor="#f4c9aa"] ;
225 -> 226 ;
227 [label="entropy = 0.0\nsamples = 3\nvalue = [0, 3, 0, 0, 0, 0]\nclass = 2", fillcolor="#9de539"] ;
226 -> 227 ;
228 [label="st_met <= -0.015\nentropy = 0.912\nsamples = 52\nvalue = [35, 17, 0, 0, 0, 0]\nclass = 1", fillcolor="#f2be99"] ;
226 -> 228 ;
229 [label="entropy = 0.0\nsamples = 9\nvalue = [9, 0, 0, 0, 0, 0]\nclass = 1", fillcolor="#e58139"] ;
228 -> 229 ;
230 [label="st_mass <= 1.035\nentropy = 0.968\nsamples = 43\nvalue = [26, 17, 0, 0, 0, 0]\nclass = 1", fillcolor="#f6d3ba"] ;
228 -> 230 ;
231 [label="entropy = 0.0\nsamples = 3\nvalue = [0, 3, 0, 0, 0, 0]\nclass = 2", fillcolor="#9de539"] ;
230 -> 231 ;
232 [label="entropy = 0.934\nsamples = 40\nvalue = [26, 14, 0, 0, 0, 0]\nclass = 1", fillcolor="#f3c5a4"] ;
230 -> 232 ;
233 [label="entropy = 0.0\nsamples = 7\nvalue = [7, 0, 0, 0, 0, 0]\nclass = 1", fillcolor="#e58139"] ;
225 -> 233 ;
234 [label="st_met <= -0.06\nentropy = 0.469\nsamples = 10\nvalue = [9, 0, 0, 1, 0, 0]\nclass = 1", fillcolor="#e88f4f"] ;
224 -> 234 ;
235 [label="entropy = 0.0\nsamples = 1\nvalue = [0, 0, 0, 1, 0, 0]\nclass = 4", fillcolor="#399de5"] ;
234 -> 235 ;
236 [label="entropy = 0.0\nsamples = 9\nvalue = [9, 0, 0, 0, 0, 0]\nclass = 1", fillcolor="#e58139"] ;
234 -> 236 ;
237 [label="st_rad <= 1.33\nentropy = 0.65\nsamples = 6\nvalue = [1, 5, 0, 0, 0, 0]\nclass = 2", fillcolor="#b1ea61"] ;
223 -> 237 ;
238 [label="entropy = 0.0\nsamples = 5\nvalue = [0, 5, 0, 0, 0, 0]\nclass = 2", fillcolor="#9de539"] ;
237 -> 238 ;
239 [label="entropy = 0.0\nsamples = 1\nvalue = [1, 0, 0, 0, 0, 0]\nclass = 1", fillcolor="#e58139"] ;
237 -> 239 ;
240 [label="entropy = 0.0\nsamples = 9\nvalue = [9, 0, 0, 0, 0, 0]\nclass = 1", fillcolor="#e58139"] ;
222 -> 240 ;
241 [label="entropy = 0.0\nsamples = 4\nvalue = [0, 4, 0, 0, 0, 0]\nclass = 2", fillcolor="#9de539"] ;
221 -> 241 ;
242 [label="st_dens <= 1.472\nentropy = 0.281\nsamples = 41\nvalue = [39, 2, 0, 0, 0, 0]\nclass = 1", fillcolor="#e68743"] ;
218 -> 242 ;
243 [label="entropy = 0.0\nsamples = 37\nvalue = [37, 0, 0, 0, 0, 0]\nclass = 1", fillcolor="#e58139"] ;
242 -> 243 ;
244 [label="st_teff <= 5817.5\nentropy = 1.0\nsamples = 4\nvalue = [2, 2, 0, 0, 0, 0]\nclass = 1", fillcolor="#ffffff"] ;
242 -> 244 ;
245 [label="entropy = 0.0\nsamples = 2\nvalue = [2, 0, 0, 0, 0, 0]\nclass = 1", fillcolor="#e58139"] ;
244 -> 245 ;
246 [label="entropy = 0.0\nsamples = 2\nvalue = [0, 2, 0, 0, 0, 0]\nclass = 2", fillcolor="#9de539"] ;
244 -> 246 ;
247 [label="st_dens <= 0.094\nentropy = 0.165\nsamples = 41\nvalue = [40, 1, 0, 0, 0, 0]\nclass = 1", fillcolor="#e6843e"] ;
217 -> 247 ;
248 [label="entropy = 0.0\nsamples = 1\nvalue = [0, 1, 0, 0, 0, 0]\nclass = 2", fillcolor="#9de539"] ;
247 -> 248 ;
249 [label="entropy = 0.0\nsamples = 40\nvalue = [40, 0, 0, 0, 0, 0]\nclass = 1", fillcolor="#e58139"] ;
247 -> 249 ;
250 [label="st_teff <= 5803.5\nentropy = 1.846\nsamples = 208\nvalue = [109, 58, 8, 11, 7, 15]\nclass = 1", fillcolor="#f6d4bc"] ;
182 -> 250 ;
251 [label="st_radv <= -55.87\nentropy = 1.256\nsamples = 109\nvalue = [65, 38, 0, 0, 2, 4]\nclass = 1", fillcolor="#f5cfb4"] ;
250 -> 251 ;
252 [label="st_radv <= -57.845\nentropy = 1.561\nsamples = 16\nvalue = [6, 6, 0, 0, 0, 4]\nclass = 1", fillcolor="#ffffff"] ;
251 -> 252 ;
253 [label="st_mass <= 1.015\nentropy = 1.0\nsamples = 12\nvalue = [6, 6, 0, 0, 0, 0]\nclass = 1", fillcolor="#ffffff"] ;
252 -> 253 ;
254 [label="st_radv <= -94.095\nentropy = 0.592\nsamples = 7\nvalue = [6, 1, 0, 0, 0, 0]\nclass = 1", fillcolor="#e9965a"] ;
253 -> 254 ;
255 [label="entropy = 0.0\nsamples = 1\nvalue = [0, 1, 0, 0, 0, 0]\nclass = 2", fillcolor="#9de539"] ;
254 -> 255 ;
256 [label="entropy = 0.0\nsamples = 6\nvalue = [6, 0, 0, 0, 0, 0]\nclass = 1", fillcolor="#e58139"] ;
254 -> 256 ;
257 [label="entropy = 0.0\nsamples = 5\nvalue = [0, 5, 0, 0, 0, 0]\nclass = 2", fillcolor="#9de539"] ;
253 -> 257 ;
258 [label="entropy = 0.0\nsamples = 4\nvalue = [0, 0, 0, 0, 0, 4]\nclass = 6", fillcolor="#e5399d"] ;
252 -> 258 ;
259 [label="st_rad <= 0.9\nentropy = 1.065\nsamples = 93\nvalue = [59, 32, 0, 0, 2, 0]\nclass = 1", fillcolor="#f3c7a7"] ;
251 -> 259 ;
260 [label="st_teff <= 5630.0\nentropy = 1.0\nsamples = 4\nvalue = [2, 0, 0, 0, 2, 0]\nclass = 1", fillcolor="#ffffff"] ;
259 -> 260 ;
261 [label="entropy = 0.0\nsamples = 2\nvalue = [2, 0, 0, 0, 0, 0]\nclass = 1", fillcolor="#e58139"] ;
260 -> 261 ;
262 [label="entropy = 0.0\nsamples = 2\nvalue = [0, 0, 0, 0, 2, 0]\nclass = 5", fillcolor="#8139e5"] ;
260 -> 262 ;
263 [label="st_radv <= 29.595\nentropy = 0.942\nsamples = 89\nvalue = [57, 32, 0, 0, 0, 0]\nclass = 1", fillcolor="#f4c8a8"] ;
259 -> 263 ;
264 [label="st_teff <= 5670.5\nentropy = 0.979\nsamples = 77\nvalue = [45, 32, 0, 0, 0, 0]\nclass = 1", fillcolor="#f7dbc6"] ;
263 -> 264 ;
265 [label="st_met <= -0.133\nentropy = 0.987\nsamples = 37\nvalue = [16, 21, 0, 0, 0, 0]\nclass = 2", fillcolor="#e8f9d0"] ;
264 -> 265 ;
266 [label="entropy = 0.0\nsamples = 9\nvalue = [0, 9, 0, 0, 0, 0]\nclass = 2", fillcolor="#9de539"] ;
265 -> 266 ;
267 [label="st_age <= 5.3\nentropy = 0.985\nsamples = 28\nvalue = [16, 12, 0, 0, 0, 0]\nclass = 1", fillcolor="#f8e0ce"] ;
265 -> 267 ;
268 [label="st_age <= 4.9\nentropy = 0.503\nsamples = 9\nvalue = [1, 8, 0, 0, 0, 0]\nclass = 2", fillcolor="#a9e852"] ;
267 -> 268 ;
269 [label="st_teff <= 5655.0\nentropy = 0.918\nsamples = 3\nvalue = [1, 2, 0, 0, 0, 0]\nclass = 2", fillcolor="#cef29c"] ;
268 -> 269 ;
270 [label="entropy = 0.0\nsamples = 1\nvalue = [1, 0, 0, 0, 0, 0]\nclass = 1", fillcolor="#e58139"] ;
269 -> 270 ;
271 [label="entropy = 0.0\nsamples = 2\nvalue = [0, 2, 0, 0, 0, 0]\nclass = 2", fillcolor="#9de539"] ;
269 -> 271 ;
272 [label="entropy = 0.0\nsamples = 6\nvalue = [0, 6, 0, 0, 0, 0]\nclass = 2", fillcolor="#9de539"] ;
268 -> 272 ;
273 [label="st_teff <= 5585.5\nentropy = 0.742\nsamples = 19\nvalue = [15, 4, 0, 0, 0, 0]\nclass = 1", fillcolor="#eca36e"] ;
267 -> 273 ;
274 [label="entropy = 0.0\nsamples = 2\nvalue = [0, 2, 0, 0, 0, 0]\nclass = 2", fillcolor="#9de539"] ;
273 -> 274 ;
275 [label="st_met <= 0.235\nentropy = 0.523\nsamples = 17\nvalue = [15, 2, 0, 0, 0, 0]\nclass = 1", fillcolor="#e89253"] ;
273 -> 275 ;
276 [label="entropy = 0.0\nsamples = 10\nvalue = [10, 0, 0, 0, 0, 0]\nclass = 1", fillcolor="#e58139"] ;
275 -> 276 ;
277 [label="st_rad <= 1.21\nentropy = 0.863\nsamples = 7\nvalue = [5, 2, 0, 0, 0, 0]\nclass = 1", fillcolor="#efb388"] ;
275 -> 277 ;
278 [label="st_dens <= 1.076\nentropy = 0.918\nsamples = 3\nvalue = [1, 2, 0, 0, 0, 0]\nclass = 2", fillcolor="#cef29c"] ;
277 -> 278 ;
279 [label="entropy = 0.0\nsamples = 2\nvalue = [0, 2, 0, 0, 0, 0]\nclass = 2", fillcolor="#9de539"] ;
278 -> 279 ;
280 [label="entropy = 0.0\nsamples = 1\nvalue = [1, 0, 0, 0, 0, 0]\nclass = 1", fillcolor="#e58139"] ;
278 -> 280 ;
281 [label="entropy = 0.0\nsamples = 4\nvalue = [4, 0, 0, 0, 0, 0]\nclass = 1", fillcolor="#e58139"] ;
277 -> 281 ;
282 [label="st_teff <= 5734.0\nentropy = 0.849\nsamples = 40\nvalue = [29, 11, 0, 0, 0, 0]\nclass = 1", fillcolor="#efb184"] ;
264 -> 282 ;
283 [label="entropy = 0.0\nsamples = 17\nvalue = [17, 0, 0, 0, 0, 0]\nclass = 1", fillcolor="#e58139"] ;
282 -> 283 ;
284 [label="st_rad <= 1.3\nentropy = 0.999\nsamples = 23\nvalue = [12, 11, 0, 0, 0, 0]\nclass = 1", fillcolor="#fdf5ef"] ;
282 -> 284 ;
285 [label="st_dens <= 0.842\nentropy = 0.896\nsamples = 16\nvalue = [5, 11, 0, 0, 0, 0]\nclass = 2", fillcolor="#caf193"] ;
284 -> 285 ;
286 [label="entropy = 0.0\nsamples = 7\nvalue = [0, 7, 0, 0, 0, 0]\nclass = 2", fillcolor="#9de539"] ;
285 -> 286 ;
287 [label="st_age <= 9.21\nentropy = 0.991\nsamples = 9\nvalue = [5, 4, 0, 0, 0, 0]\nclass = 1", fillcolor="#fae6d7"] ;
285 -> 287 ;
288 [label="st_age <= 6.245\nentropy = 0.918\nsamples = 6\nvalue = [2, 4, 0, 0, 0, 0]\nclass = 2", fillcolor="#cef29c"] ;
287 -> 288 ;
289 [label="entropy = 0.0\nsamples = 2\nvalue = [2, 0, 0, 0, 0, 0]\nclass = 1", fillcolor="#e58139"] ;
288 -> 289 ;
290 [label="entropy = 0.0\nsamples = 4\nvalue = [0, 4, 0, 0, 0, 0]\nclass = 2", fillcolor="#9de539"] ;
288 -> 290 ;
291 [label="entropy = 0.0\nsamples = 3\nvalue = [3, 0, 0, 0, 0, 0]\nclass = 1", fillcolor="#e58139"] ;
287 -> 291 ;
292 [label="entropy = 0.0\nsamples = 7\nvalue = [7, 0, 0, 0, 0, 0]\nclass = 1", fillcolor="#e58139"] ;
284 -> 292 ;
293 [label="entropy = 0.0\nsamples = 12\nvalue = [12, 0, 0, 0, 0, 0]\nclass = 1", fillcolor="#e58139"] ;
263 -> 293 ;
294 [label="st_age <= 4.28\nentropy = 2.201\nsamples = 99\nvalue = [44, 20, 8, 11, 5, 11]\nclass = 1", fillcolor="#f7d9c3"] ;
250 -> 294 ;
295 [label="st_radv <= 2.51\nentropy = 0.863\nsamples = 7\nvalue = [2, 0, 0, 0, 5, 0]\nclass = 5", fillcolor="#b388ef"] ;
294 -> 295 ;
296 [label="entropy = 0.0\nsamples = 2\nvalue = [2, 0, 0, 0, 0, 0]\nclass = 1", fillcolor="#e58139"] ;
295 -> 296 ;
297 [label="entropy = 0.0\nsamples = 5\nvalue = [0, 0, 0, 0, 5, 0]\nclass = 5", fillcolor="#8139e5"] ;
295 -> 297 ;
298 [label="st_radv <= -74.27\nentropy = 2.034\nsamples = 92\nvalue = [42, 20, 8, 11, 0, 11]\nclass = 1", fillcolor="#f7d8c2"] ;
294 -> 298 ;
299 [label="entropy = 0.0\nsamples = 6\nvalue = [0, 0, 0, 0, 0, 6]\nclass = 6", fillcolor="#e5399d"] ;
298 -> 299 ;
300 [label="st_age <= 4.32\nentropy = 1.931\nsamples = 86\nvalue = [42, 20, 8, 11, 0, 5]\nclass = 1", fillcolor="#f6d5bd"] ;
298 -> 300 ;
301 [label="st_rad <= 1.195\nentropy = 1.555\nsamples = 12\nvalue = [4, 0, 0, 3, 0, 5]\nclass = 6", fillcolor="#fce6f3"] ;
300 -> 301 ;
302 [label="entropy = 0.0\nsamples = 5\nvalue = [0, 0, 0, 0, 0, 5]\nclass = 6", fillcolor="#e5399d"] ;
301 -> 302 ;
303 [label="st_teff <= 5855.0\nentropy = 0.985\nsamples = 7\nvalue = [4, 0, 0, 3, 0, 0]\nclass = 1", fillcolor="#f8e0ce"] ;
301 -> 303 ;
304 [label="entropy = 0.0\nsamples = 3\nvalue = [0, 0, 0, 3, 0, 0]\nclass = 4", fillcolor="#399de5"] ;
303 -> 304 ;
305 [label="entropy = 0.0\nsamples = 4\nvalue = [4, 0, 0, 0, 0, 0]\nclass = 1", fillcolor="#e58139"] ;
303 -> 305 ;
306 [label="st_mass <= 1.205\nentropy = 1.698\nsamples = 74\nvalue = [38, 20, 8, 8, 0, 0]\nclass = 1", fillcolor="#f6d5bd"] ;
300 -> 306 ;
307 [label="st_radv <= -9.18\nentropy = 1.78\nsamples = 59\nvalue = [25, 20, 6, 8, 0, 0]\nclass = 1", fillcolor="#fcefe6"] ;
306 -> 307 ;
308 [label="st_rad <= 1.24\nentropy = 1.848\nsamples = 29\nvalue = [12, 6, 3, 8, 0, 0]\nclass = 1", fillcolor="#fae7d9"] ;
307 -> 308 ;
309 [label="st_radv <= -50.365\nentropy = 1.14\nsamples = 13\nvalue = [9, 0, 1, 3, 0, 0]\nclass = 1", fillcolor="#efb388"] ;
308 -> 309 ;
310 [label="st_radv <= -58.285\nentropy = 1.459\nsamples = 6\nvalue = [2, 0, 1, 3, 0, 0]\nclass = 4", fillcolor="#cee6f8"] ;
309 -> 310 ;
311 [label="st_dens <= 1.148\nentropy = 0.918\nsamples = 3\nvalue = [2, 0, 1, 0, 0, 0]\nclass = 1", fillcolor="#f2c09c"] ;
310 -> 311 ;
312 [label="entropy = 0.0\nsamples = 2\nvalue = [2, 0, 0, 0, 0, 0]\nclass = 1", fillcolor="#e58139"] ;
311 -> 312 ;
313 [label="entropy = 0.0\nsamples = 1\nvalue = [0, 0, 1, 0, 0, 0]\nclass = 3", fillcolor="#39e581"] ;
311 -> 313 ;
314 [label="entropy = 0.0\nsamples = 3\nvalue = [0, 0, 0, 3, 0, 0]\nclass = 4", fillcolor="#399de5"] ;
310 -> 314 ;
315 [label="entropy = 0.0\nsamples = 7\nvalue = [7, 0, 0, 0, 0, 0]\nclass = 1", fillcolor="#e58139"] ;
309 -> 315 ;
316 [label="st_radv <= -17.51\nentropy = 1.883\nsamples = 16\nvalue = [3, 6, 2, 5, 0, 0]\nclass = 2", fillcolor="#f6fded"] ;
308 -> 316 ;
317 [label="st_teff <= 5883.5\nentropy = 1.53\nsamples = 9\nvalue = [3, 4, 2, 0, 0, 0]\nclass = 2", fillcolor="#effbde"] ;
316 -> 317 ;
318 [label="st_radv <= -55.39\nentropy = 0.722\nsamples = 5\nvalue = [0, 4, 1, 0, 0, 0]\nclass = 2", fillcolor="#b6ec6a"] ;
317 -> 318 ;
319 [label="entropy = 0.0\nsamples = 1\nvalue = [0, 0, 1, 0, 0, 0]\nclass = 3", fillcolor="#39e581"] ;
318 -> 319 ;
320 [label="entropy = 0.0\nsamples = 4\nvalue = [0, 4, 0, 0, 0, 0]\nclass = 2", fillcolor="#9de539"] ;
318 -> 320 ;
321 [label="st_rad <= 1.75\nentropy = 0.811\nsamples = 4\nvalue = [3, 0, 1, 0, 0, 0]\nclass = 1", fillcolor="#eeab7b"] ;
317 -> 321 ;
322 [label="entropy = 0.0\nsamples = 3\nvalue = [3, 0, 0, 0, 0, 0]\nclass = 1", fillcolor="#e58139"] ;
321 -> 322 ;
323 [label="entropy = 0.0\nsamples = 1\nvalue = [0, 0, 1, 0, 0, 0]\nclass = 3", fillcolor="#39e581"] ;
321 -> 323 ;
324 [label="st_met <= -0.034\nentropy = 0.863\nsamples = 7\nvalue = [0, 2, 0, 5, 0, 0]\nclass = 4", fillcolor="#88c4ef"] ;
316 -> 324 ;
325 [label="entropy = 0.0\nsamples = 2\nvalue = [0, 2, 0, 0, 0, 0]\nclass = 2", fillcolor="#9de539"] ;
324 -> 325 ;
326 [label="entropy = 0.0\nsamples = 5\nvalue = [0, 0, 0, 5, 0, 0]\nclass = 4", fillcolor="#399de5"] ;
324 -> 326 ;
327 [label="st_radv <= 11.34\nentropy = 1.368\nsamples = 30\nvalue = [13, 14, 3, 0, 0, 0]\nclass = 2", fillcolor="#f9fdf3"] ;
307 -> 327 ;
328 [label="st_mass <= 1.075\nentropy = 1.347\nsamples = 18\nvalue = [4, 11, 3, 0, 0, 0]\nclass = 2", fillcolor="#cef29c"] ;
327 -> 328 ;
329 [label="st_radv <= 10.305\nentropy = 0.881\nsamples = 10\nvalue = [0, 7, 3, 0, 0, 0]\nclass = 2", fillcolor="#c7f08e"] ;
328 -> 329 ;
330 [label="st_age <= 4.405\nentropy = 0.544\nsamples = 8\nvalue = [0, 7, 1, 0, 0, 0]\nclass = 2", fillcolor="#abe955"] ;
329 -> 330 ;
331 [label="entropy = 0.0\nsamples = 1\nvalue = [0, 0, 1, 0, 0, 0]\nclass = 3", fillcolor="#39e581"] ;
330 -> 331 ;
332 [label="entropy = 0.0\nsamples = 7\nvalue = [0, 7, 0, 0, 0, 0]\nclass = 2", fillcolor="#9de539"] ;
330 -> 332 ;
333 [label="entropy = 0.0\nsamples = 2\nvalue = [0, 0, 2, 0, 0, 0]\nclass = 3", fillcolor="#39e581"] ;
329 -> 333 ;
334 [label="st_met <= -0.265\nentropy = 1.0\nsamples = 8\nvalue = [4, 4, 0, 0, 0, 0]\nclass = 1", fillcolor="#ffffff"] ;
328 -> 334 ;
335 [label="entropy = 0.0\nsamples = 4\nvalue = [0, 4, 0, 0, 0, 0]\nclass = 2", fillcolor="#9de539"] ;
334 -> 335 ;
336 [label="entropy = 0.0\nsamples = 4\nvalue = [4, 0, 0, 0, 0, 0]\nclass = 1", fillcolor="#e58139"] ;
334 -> 336 ;
337 [label="st_met <= -0.001\nentropy = 0.811\nsamples = 12\nvalue = [9, 3, 0, 0, 0, 0]\nclass = 1", fillcolor="#eeab7b"] ;
327 -> 337 ;
338 [label="entropy = 0.0\nsamples = 7\nvalue = [7, 0, 0, 0, 0, 0]\nclass = 1", fillcolor="#e58139"] ;
337 -> 338 ;
339 [label="st_dens <= 0.952\nentropy = 0.971\nsamples = 5\nvalue = [2, 3, 0, 0, 0, 0]\nclass = 2", fillcolor="#def6bd"] ;
337 -> 339 ;
340 [label="entropy = 0.0\nsamples = 2\nvalue = [2, 0, 0, 0, 0, 0]\nclass = 1", fillcolor="#e58139"] ;
339 -> 340 ;
341 [label="entropy = 0.0\nsamples = 3\nvalue = [0, 3, 0, 0, 0, 0]\nclass = 2", fillcolor="#9de539"] ;
339 -> 341 ;
342 [label="st_mass <= 1.215\nentropy = 0.567\nsamples = 15\nvalue = [13, 0, 2, 0, 0, 0]\nclass = 1", fillcolor="#e99457"] ;
306 -> 342 ;
343 [label="st_radv <= -11.07\nentropy = 1.0\nsamples = 4\nvalue = [2, 0, 2, 0, 0, 0]\nclass = 1", fillcolor="#ffffff"] ;
342 -> 343 ;
344 [label="entropy = 0.0\nsamples = 2\nvalue = [0, 0, 2, 0, 0, 0]\nclass = 3", fillcolor="#39e581"] ;
343 -> 344 ;
345 [label="entropy = 0.0\nsamples = 2\nvalue = [2, 0, 0, 0, 0, 0]\nclass = 1", fillcolor="#e58139"] ;
343 -> 345 ;
346 [label="entropy = 0.0\nsamples = 11\nvalue = [11, 0, 0, 0, 0, 0]\nclass = 1", fillcolor="#e58139"] ;
342 -> 346 ;
{rank=same ; 0} ;
{rank=same ; 1; 182} ;
{rank=same ; 73; 93; 104; 114; 119; 125; 136; 155; 166; 192; 225; 234; 269; 275; 287; 310; 317; 324; 329; 334; 339} ;
{rank=same ; 74; 94; 97; 105; 108; 116; 120; 126; 193; 226; 277; 288; 311; 318; 321; 330} ;
{rank=same ; 76; 99; 127; 228; 278} ;
{rank=same ; 128; 131; 230} ;
{rank=same ; 2; 21; 183; 250} ;
{rank=same ; 3; 6; 22; 49; 184; 217; 251; 294} ;
{rank=same ; 7; 12; 23; 26; 50; 169; 185; 214; 218; 247; 252; 259; 295; 298} ;
{rank=same ; 8; 14; 27; 46; 51; 88; 170; 177; 186; 209; 219; 242; 253; 260; 263; 300} ;
{rank=same ; 16; 29; 52; 69; 89; 144; 171; 174; 179; 187; 200; 211; 221; 244; 254; 264; 301; 306} ;
{rank=same ; 18; 30; 37; 53; 58; 70; 90; 139; 145; 152; 188; 201; 222; 265; 282; 303; 307; 342} ;
{rank=same ; 31; 38; 43; 55; 59; 64; 71; 84; 91; 112; 141; 147; 153; 160; 190; 203; 223; 267; 284; 308; 327; 343} ;
{rank=same ; 32; 39; 60; 66; 72; 81; 92; 103; 113; 124; 149; 154; 161; 164; 191; 204; 224; 237; 268; 273; 285; 309; 316; 328; 337} ;
{rank=same ; 4; 5; 9; 10; 11; 13; 15; 17; 19; 20; 24; 25; 28; 33; 34; 35; 36; 40; 41; 42; 44; 45; 47; 48; 54; 56; 57; 61; 62; 63; 65; 67; 68; 75; 77; 78; 79; 80; 82; 83; 85; 86; 87; 95; 96; 98; 100; 101; 102; 106; 107; 109; 110; 111; 115; 117; 118; 121; 122; 123; 129; 130; 132; 133; 134; 135; 137; 138; 140; 142; 143; 146; 148; 150; 151; 156; 157; 158; 159; 162; 163; 165; 167; 168; 172; 173; 175; 176; 178; 180; 181; 189; 194; 195; 196; 197; 198; 199; 202; 205; 206; 207; 208; 210; 212; 213; 215; 216; 220; 227; 229; 231; 232; 233; 235; 236; 238; 239; 240; 241; 243; 245; 246; 248; 249; 255; 256; 257; 258; 261; 262; 266; 270; 271; 272; 274; 276; 279; 280; 281; 283; 286; 289; 290; 291; 292; 293; 296; 297; 299; 302; 304; 305; 312; 313; 314; 315; 319; 320; 322; 323; 325; 326; 331; 332; 333; 335; 336; 338; 340; 341; 344; 345; 346} ;
}